<?xml version="1.0" encoding="UTF-8"?>
<BIF VERSION="0.3"  xmlns="http://www.cs.ubc.ca/labs/lci/fopi/ve/XMLBIFv0_3"
	xmlns:xsi="http://www.w3.org/2001/XMLSchema-instance"
	xsi:schemaLocation="http://www.cs.ubc.ca/labs/lci/fopi/ve/XMLBIFv0_3 http://www.cs.ubc.ca/labs/lci/fopi/ve/XMLBIFv0_3/XMLBIFv0_3.xsd">
<NETWORK>
<NAME>Untitled</NAME>
<PROPERTY>detailed = </PROPERTY>
<PROPERTY>short = </PROPERTY>

<VARIABLE TYPE="nature">
	<NAME>Smoking?</NAME>
	<OUTCOME>T</OUTCOME>
	<OUTCOME>F</OUTCOME>
	<PROPERTY>position = (7369.04736328125, 5047.24560546875)</PROPERTY>
</VARIABLE>

<VARIABLE TYPE="nature">
	<NAME>Bronchitis</NAME>
	<OUTCOME>T</OUTCOME>
	<OUTCOME>F</OUTCOME>
	<PROPERTY>position = (7280.10107421875, 5155.8623046875)</PROPERTY>
</VARIABLE>

<VARIABLE TYPE="nature">
	<NAME>Lung cancer?</NAME>
	<OUTCOME>T</OUTCOME>
	<OUTCOME>F</OUTCOME>
	<PROPERTY>position = (7475.9541015625, 5162.7041015625)</PROPERTY>
</VARIABLE>

<VARIABLE TYPE="nature">
	<NAME>Dysponea</NAME>
	<OUTCOME>T</OUTCOME>
	<OUTCOME>F</OUTCOME>
	<PROPERTY>position = (7449.44091796875, 5398.75390625)</PROPERTY>
</VARIABLE>

<VARIABLE TYPE="nature">
	<NAME>Positive X-Ray</NAME>
	<OUTCOME>T</OUTCOME>
	<OUTCOME>F</OUTCOME>
	<OBS>T</OBS>
	<PROPERTY>position = (7659.83251953125, 5388.49072265625)</PROPERTY>
</VARIABLE>

<VARIABLE TYPE="nature">
	<NAME>Visit Asia?</NAME>
	<OUTCOME>T</OUTCOME>
	<OUTCOME>F</OUTCOME>
	<PROPERTY>position = (7694.04248046875, 5049.8115234375)</PROPERTY>
</VARIABLE>

<VARIABLE TYPE="nature">
	<NAME>Tuberculosis</NAME>
	<OUTCOME>T</OUTCOME>
	<OUTCOME>F</OUTCOME>
	<PROPERTY>position = (7694.8984375, 5159.28369140625)</PROPERTY>
</VARIABLE>

<VARIABLE TYPE="nature">
	<NAME>Either a tub. or lung cancer</NAME>
	<OUTCOME>T</OUTCOME>
	<OUTCOME>F</OUTCOME>
	<PROPERTY>position = (7564.89990234375, 5285.00537109375)</PROPERTY>
</VARIABLE>

<DEFINITION>
	<FOR>Smoking?</FOR>
	<TABLE>0.5 0.5</TABLE>
</DEFINITION>

<DEFINITION>
	<FOR>Bronchitis</FOR>
	<GIVEN>Smoking?</GIVEN>
	<TABLE>0.6 0.4 0.3 0.7</TABLE>
</DEFINITION>

<DEFINITION>
	<FOR>Lung cancer?</FOR>
	<GIVEN>Smoking?</GIVEN>
	<TABLE>0.1 0.9 0.01 0.99</TABLE>
</DEFINITION>

<DEFINITION>
	<FOR>Dysponea</FOR>
	<GIVEN>Bronchitis</GIVEN>
	<GIVEN>Either a tub. or lung cancer</GIVEN>
	<TABLE>0.9 0.1 0.8 0.2 0.7 0.3 0.1 0.9</TABLE>
</DEFINITION>

<DEFINITION>
	<FOR>Positive X-Ray</FOR>
	<GIVEN>Either a tub. or lung cancer</GIVEN>
	<TABLE>0.98 0.02 0.05 0.95</TABLE>
</DEFINITION>

<DEFINITION>
	<FOR>Visit Asia?</FOR>
	<TABLE>0.01 0.99</TABLE>
</DEFINITION>

<DEFINITION>
	<FOR>Tuberculosis</FOR>
	<GIVEN>Visit Asia?</GIVEN>
	<TABLE>0.05 0.95 0.01 0.99</TABLE>
</DEFINITION>

<DEFINITION>
	<FOR>Either a tub. or lung cancer</FOR>
	<GIVEN>Lung cancer?</GIVEN>
	<GIVEN>Tuberculosis</GIVEN>
	<TABLE>1.0 0.0 1.0 0.0 1.0 0.0 0.0 1.0</TABLE>
</DEFINITION>
</NETWORK>
</BIF>
